<?xml version="1.0"?>
<!--
This is just basic 5 stage haar cascade car detector develop by 
V.K. from https://funvision.blogspot.com
-->

<opencv_storage>
<cascade>
  <stageType>BOOST</stageType>
  <featureType>LBP</featureType>
  <height>32</height>
  <width>32</width>
  <stageParams>
    <boostType>GAB</boostType>
    <minHitRate>9.9999499320983887e-01</minHitRate>
    <maxFalseAlarm>4.1999998688697815e-01</maxFalseAlarm>
    <weightTrimRate>9.4999999999999996e-01</weightTrimRate>
    <maxDepth>25</maxDepth>
    <maxWeakCount>80</maxWeakCount></stageParams>
  <featureParams>
    <maxCatCount>256</maxCatCount>
    <featSize>1</featSize></featureParams>
  <stageNum>5</stageNum>
  <stages>
    <!-- stage 0 -->
    <_>
      <maxWeakCount>1</maxWeakCount>
      <stageThreshold>1.4285714924335480e-01</stageThreshold>
      <weakClassifiers>
        <_>
          <internalNodes>
            1 2 79 -1 -577 -183241217 -1073742881 -347341057 -273679397
            -1409553409 -1342177281 3 4 20 -8193 -2137801 -2369729
            -43069 -11534337 -4722449 -41026561 -2097153 5 6 41 -1015792
            -784334848 1342177280 -251654144 1744830592 -536837632
            -1879048192 2130739200 7 0 71 -39854081 -6293529 -103548417
            -8389121 -356586497 -6300257 -6291457 -9217 -1 -2 0 0
            -2147483648 0 134217728 0 0 0 -2063597568 -3 -4 11
            1105264747 286392449 262145 353566721 622616 204013568
            1196042 -1718943741 -5 8 59 0 -804257792 0 67108864 32768 0
            -2147483648 1098940416 9 -6 54 -2097153 -10749957 -175153673
            -4719665 -1148194817 -68165153 -605028373 -1025 -7 10 51 0 1
            0 0 0 687898624 0 0 -8 -9 12 -81791489 -6961679 -548274209
            -6324001 -1718944837 -69627713 -16716865 -275537 -10 -11 15
            0 67108864 0 4 0 0 0 0</internalNodes>
          <leafValues>
            5.5555558204650879e-01 -1. 1. -1. 1. -1.
            1.4285714924335480e-01 -1. -1. 1. -1. 1.</leafValues></_></weakClassifiers></_>
    <!-- stage 1 -->
    <_>
      <maxWeakCount>1</maxWeakCount>
      <stageThreshold>5.0000000000000000e-01</stageThreshold>
      <weakClassifiers>
        <_>
          <internalNodes>
            1 2 80 -2097153 -1078206977 -2236673 -1080033281 -2097153
            -1073939969 -70516737 -1073741825 3 4 62 -1 -2108417
            -538992641 -2097185 -241172481 -73403937 -103810049 -4194305
            5 6 55 -771690485 -787980285 32769 -788518910 -2147458423
            -402515840 -804779896 1925392019 7 8 87 -1 -1107305473
            -145105921 -2097281 -71566337 -106176513 -1049601 -1 0 -1 0
            0 0 0 0 0 0 0 -1610612736 -2 -3 0 -1039994735 -788463616
            33620289 1427161097 -2147385142 -1610578944 537002155
            -880031093 9 10 83 1073708799 1056915455 -1090519042
            268501249 335544320 16 -2147483648 218049536 11 -4 52
            -11141121 -3585 -546048513 -2106529 -73663489 -2385157
            -6291457 -8193 -5 -6 18 164234 1073741825 1 1082130560
            8388609 4227200 1052682 17082371 -7 -8 0 37748736 272629760
            0 129 -2113896440 67108992 536870922 -1073643391 12 13 89 0
            1073741824 1 147456 1 0 16777216 65600 14 -9 65 -532993
            -2369313 -1118437889 -537003681 -23533057 -476689 -20123649
            -2117665 -10 -11 0 36865 1082130432 0 16777216 0 0 8
            -805240703 -12 15 35 40960 0 0 0 1 0 2 16 -13 -14 53
            -2097665 -10629 1528397311 -2098209 -21385217 -29955
            -5505025 -12289 -15 16 23 0 0 0 0 0 0 0 327680 -16 -17 17 0
            0 0 0 0 0 128 0</internalNodes>
          <leafValues>
            -1. 1. -1. 1. 6.0000002384185791e-01 -1. 1. -1. 1.
            5.0000000000000000e-01 -1. 1. -1. -1. 1. -1. -1. 1.</leafValues></_></weakClassifiers></_>
    <!-- stage 2 -->
    <_>
      <maxWeakCount>1</maxWeakCount>
      <stageThreshold>-8.0000001192092896e-01</stageThreshold>
      <weakClassifiers>
        <_>
          <internalNodes>
            1 2 42 -1 -536870917 -539410433 -2129961 -1097729 -2524225
            -311297 -32769 3 4 57 -136314881 -2098177 -139223041
            -2230319 -6946817 -337157 -100794625 -655361 5 6 90
            -514650861 -2143219456 287314177 -1392160512 -787464118
            -1728049152 402739788 -1343892205 7 0 61 -33554433 -2337
            -545260545 -545 -132097 -69239825 -1049601 -1 -1 8 76
            -2138324976 356516353 536940697 17010699 1613758497
            -2147450832 815833091 -1346142205 9 10 85 -805056123
            1342406915 16846915 -717529085 279615627 -1996423167
            -1073205077 -482096877 11 12 77 268435811 1 16779284
            344031264 526507 1384120448 164490 284428416 13 -2 49 -1
            -67108897 -6563841 -1 -16385 -151016709 -8261 -1 -3 -4 30
            16777234 0 64 0 65536 268435456 262152 -2013265919 -5 -6 7
            -1052256037 -733936384 805421097 -133586939 -1073627125
            -2138963968 -1608416566 -14691189 -7 -8 1 0 1 0 65536 0 0 0
            73728 -9 -10 8 1208070173 -2130509824 3 1073743872
            -2147446643 128 -2147483638 -1048346622 14 15 21 -185532612
            -168755202 -202309634 -168755204 -983052 -34537474
            2012542966 -2130673661 16 -11 5 -1 -33555073 -776014337
            -4197921 -67118081 -6309401 -524289 -1 -12 -13 2 -2113753086
            0 1 16384 2 0 -2147483520 -2138996734 17 18 92 1315104288
            2797094 515782176 539651874 0 1 16 72695808 19 -14 56
            -67108865 -2100225 -3675137 -2099233 -3937281 -89136481
            -67129393 -17 -15 -16 0 1073807360 4096 0 1073741824
            -2147483648 0 -2147481462 -2147352566 -17 20 68 -720908
            -983041 -1 -720908 -983056 -983046 -2147483640 -45025280 21
            -18 27 -1 -2113 -540549121 -1 -536876033 -102766081
            -272630785 -1 -19 22 50 8388608 0 0 0 0 0 2176 -2147483648
            -20 -21 43 -1 -1 -643835905 -2097825 -67126273 -2381377
            -35913729 -5 -22 23 45 0 0 0 0 134217856 0 0 65536 -23 -24 9
            8 0 0 0 0 0 0 0</internalNodes>
          <leafValues>
            1. -1. 6.0000002384185791e-01 -1. 1. -1. 1. -1. 1. -1. 1.
            3.3333334326744080e-01 -1. 1. 1. -1. 1.
            -8.0000001192092896e-01 3.3333334326744080e-01
            -7.1428573131561279e-01 -1. 3.3333334326744080e-01
            -4.2857143282890320e-01 -1. 1.</leafValues></_></weakClassifiers></_>
    <!-- stage 3 -->
    <_>
      <maxWeakCount>1</maxWeakCount>
      <stageThreshold>-7.7777779102325439e-01</stageThreshold>
      <weakClassifiers>
        <_>
          <internalNodes>
            1 2 81 939489271 -37751809 -81928225 -2097313 -5243905
            -26445 -3146833 -2117889 3 4 78 1067319295 -273409
            -537937409 -1057061 -4325441 -267589 -135528449 -1029 5 6 60
            -142672897 310083159 -1 -83886081 -1 1073217343 -1 939524095
            7 8 84 -1080033281 -150017 -581042209 -8193 -74448897
            -406277 -3621121 -50335745 9 10 47 -17039361 1074331647
            -2147483648 134283269 -2147483638 -2147450744 -2147385335
            -140410213 11 12 63 -1052710437 -217898999 67585 558186497
            1208517258 -670957440 -2113331157 -67416541 13 14 25
            -185532940 -185532420 -135069698 1911619583 -134938635
            -185532419 -136278017 -185534473 15 16 38 -4194305 -16393
            -33576961 -7681 -71566593 -7169 -1 -1 0 17 40 98457 12582912
            4 17301768 67108864 11010240 4229120 -1521580923 18 19 6
            -250359765 352321544 65540 -1845395326 37003 -1056702464
            -1065320306 -905762775 -1 -2 72 0 83888130 0 16842752 128 0
            0 134283264 20 -3 26 1392738527 336658567 -1862270967
            -1866358524 -1073512261 -796786688 -2130618225 -1448113462
            -4 -5 10 1342181384 0 0 0 1 0 36864 1073790979 -6 -7 16
            -1878648807 -1879048182 1 1179648 524424 0 268566602
            671091328 21 22 91 -492559872 536870946 -2147147744 44122080
            5505025 0 0 72773632 23 -8 32 -33554433 -33 -4464641 -525317
            -1 -67109457 -5506049 -5 -9 -10 0 0 0 1 0 0 0 2 0 -11 -12 4
            536870912 262144 0 0 0 0 1 134217728 -13 -14 1 -805093237
            -268304376 -2147483056 268435464 -1065320390 -2147483648
            -1048444790 -121270262 -15 -16 0 0 0 0 0 536870912 0 0 0 -17
            -18 0 -788414061 -715587568 32977 -247382015 -536248190
            -1979702784 -2130146935 -70278941 -19 -20 2 524290 268435456
            0 0 2 67108864 0 -2147278848 -21 24 64 -2 -2 -1 -13 -589836
            -690224 -2147450686 33554432 25 -22 39 -4196353 -2146305
            -4335617 -4194339 -23093249 -413953 -16778273 -4353 -23 26
            70 1073774592 0 0 128 64 0 0 0 27 -24 82 -2097153 -33
            -69600257 -1 -1074266113 -21505 -71630849 -4194305 -25 -26
            95 2499584 2240000 -2147407360 2100248 0 1 0 65536 28 -27 73
            -2049 -2097281 -774123073 -540020881 -75500545 -11036945
            -3145733 -33 29 -28 94 -6301697 -2106369 -543695361 -2105889
            -85992705 -277331 -101711873 -263169 -29 -30 67 -2621441
            -606088225 -70387201 -1825 -74711045 -100673357 -524289
            -1025</internalNodes>
          <leafValues>
            -1. -1. 1. 1. -1. 1. -1. 1. 7.1428573131561279e-01 -1. 1.
            -1. 1. -1. 1. -1. 1. -1. 1. -1. 1. -7.7777779102325439e-01
            1. -1. 4.2857143282890320e-01 -5.0000000000000000e-01 1. 1.
            5.0000000000000000e-01 -1. 3.3333334326744080e-01</leafValues></_></weakClassifiers></_>
    <!-- stage 4 -->
    <_>
      <maxWeakCount>1</maxWeakCount>
      <stageThreshold>-7.1428573131561279e-01</stageThreshold>
      <weakClassifiers>
        <_>
          <internalNodes>
            1 2 69 -524289 -11010177 1606287359 -37 -7340033 -34624545
            -2359297 -184549377 3 4 75 -524289 -2628609 -33556481
            -271361 -1086324737 -20994117 -235933699 -50331650 5 6 24
            -1027 -67125249 -1 2146916351 229327 1946155002 134414335
            1944795131 7 0 36 -2097665 -270881 -8661025 -6145 -272630785
            -20972033 -1050113 -1 8 9 86 144245177 -1793769213 285282317
            855708179 -1979673192 -1304428352 67305610 -903102326 10 11
            48 -606998055 -788412391 1879122063 -784230123 1610666731
            -796876800 -1073675637 -125080885 12 13 74 -354228566 454468
            -286479870 -206897182 -1207959684 1156513740 -2113929216
            1996652552 14 -1 44 -69208065 -35655201 -652215817 -69209265
            -18094145 -70326625 -71311429 -257 -2 15 93 -799157617
            -788430831 0 332480520 -2130656306 -1073364960 -1474787198
            -206109117 16 -3 88 -4309202 2147418110 -4194385 2113929207
            1 0 268435489 752152577 17 -4 88 -749472545 -1761375725
            -2130701259 -1216122837 -729750133 1074333696 403212811
            -74718577 -5 -6 3 0 0 0 33554432 0 0 1077936128 524288 18 19
            13 -1073741745 -2028928831 25 -2029453182 2563 -2147483128
            1073874955 168525826 20 21 34 -822108865 -16449 -1073797209
            -1 -1073805531 -49153 1073678095 1073709055 22 23 33 -1
            -1179649 -2498561 -4194341 -404750369 -1 -4063297 -1 -7 -8 0
            0 0 0 0 0 0 2 8 -9 -10 2 -2013257595 0 0 8192 32768 0
            16809984 -2147450879 -11 -12 14 1493490131 -242135022 98767
            -1785659387 -2130670917 -2139094528 -2147448181 -272727797
            -13 -14 2 -800096249 -2130632704 49154 -2147483519
            1082130562 163840 -1467842550 -503070193 -15 -16 0 32768 0 0
            1073741824 0 0 32 1073741824 -17 -18 19 197059 1342177280
            65537 -2147155951 0 -2146418688 -1602223989 -804782080 24 25
            29 -1082081536 -1088635544 -65600 -1088406032 -1145372752
            -9642644 -1625760256 201364736 26 -19 28 -4194305 -16385
            -67764225 -13829 -1 -20545 -132609 -1052677 -20 -21 0
            1073741824 0 1048576 0 -2147483580 -2147483648 -2147450880
            268435456 -22 -23 0 98321 -2147483631 8 0 0 0 16777352
            -2004877304 27 28 46 -2147483584 0 2 0 4 0 264 0 -24 -25 37
            -1 -1 -67903521 -4097 -538969089 -1048641 -270533633 -261
            -26 -27 0 32768 65536 0 1073741824 0 0 524296 -2080374776 29
            30 66 0 256 0 16777216 0 536870912 131072 8389120 -28 -29 0
            524289 -1073741824 0 0 32 0 0 570556416 -30 31 58
            -1346688512 -1079006542 -83951520 1022367712 134218752 0 0
            67174400 -31 32 22 0 0 0 0 0 134217728 0 8388608 -32 -33 31
            0 0 0 0 0 8 8 0</internalNodes>
          <leafValues>
            4.0000000596046448e-01 2.0000000298023224e-01 -1. 1. 1. -1.
            1. -1. 1. -1. 1. -1. 1. -1. 1. -1. 1. -1. 1. 1. -1. 1. -1.
            1. -1. 3.3333334326744080e-01 -1. 1. -1. 1.
            -7.1428573131561279e-01 -1. -1. 1.</leafValues></_></weakClassifiers></_></stages>
  <features>
    <_>
      <rect>
        0 0 1 1</rect></_>
    <_>
      <rect>
        0 0 1 2</rect></_>
    <_>
      <rect>
        0 0 1 3</rect></_>
    <_>
      <rect>
        0 0 1 6</rect></_>
    <_>
      <rect>
        0 0 2 1</rect></_>
    <_>
      <rect>
        0 0 2 2</rect></_>
    <_>
      <rect>
        0 0 2 3</rect></_>
    <_>
      <rect>
        0 0 2 5</rect></_>
    <_>
      <rect>
        0 0 3 3</rect></_>
    <_>
      <rect>
        0 0 4 6</rect></_>
    <_>
      <rect>
        0 0 5 5</rect></_>
    <_>
      <rect>
        0 0 7 6</rect></_>
    <_>
      <rect>
        0 0 8 1</rect></_>
    <_>
      <rect>
        0 0 8 5</rect></_>
    <_>
      <rect>
        0 0 10 3</rect></_>
    <_>
      <rect>
        0 0 10 7</rect></_>
    <_>
      <rect>
        0 1 6 4</rect></_>
    <_>
      <rect>
        0 2 1 4</rect></_>
    <_>
      <rect>
        0 2 3 7</rect></_>
    <_>
      <rect>
        0 3 6 4</rect></_>
    <_>
      <rect>
        0 3 6 9</rect></_>
    <_>
      <rect>
        0 3 10 6</rect></_>
    <_>
      <rect>
        0 4 9 5</rect></_>
    <_>
      <rect>
        0 5 4 3</rect></_>
    <_>
      <rect>
        0 5 9 8</rect></_>
    <_>
      <rect>
        0 5 10 5</rect></_>
    <_>
      <rect>
        0 6 4 4</rect></_>
    <_>
      <rect>
        0 7 4 4</rect></_>
    <_>
      <rect>
        0 7 8 2</rect></_>
    <_>
      <rect>
        0 8 3 6</rect></_>
    <_>
      <rect>
        0 8 4 3</rect></_>
    <_>
      <rect>
        0 9 1 5</rect></_>
    <_>
      <rect>
        0 9 4 2</rect></_>
    <_>
      <rect>
        0 10 4 2</rect></_>
    <_>
      <rect>
        0 16 5 5</rect></_>
    <_>
      <rect>
        0 19 6 2</rect></_>
    <_>
      <rect>
        1 1 5 7</rect></_>
    <_>
      <rect>
        1 2 4 3</rect></_>
    <_>
      <rect>
        1 6 6 3</rect></_>
    <_>
      <rect>
        1 6 7 2</rect></_>
    <_>
      <rect>
        1 11 6 4</rect></_>
    <_>
      <rect>
        1 12 10 6</rect></_>
    <_>
      <rect>
        1 14 6 6</rect></_>
    <_>
      <rect>
        1 16 3 2</rect></_>
    <_>
      <rect>
        1 22 1 1</rect></_>
    <_>
      <rect>
        2 1 5 4</rect></_>
    <_>
      <rect>
        2 1 7 3</rect></_>
    <_>
      <rect>
        2 2 8 9</rect></_>
    <_>
      <rect>
        2 3 4 4</rect></_>
    <_>
      <rect>
        2 11 5 7</rect></_>
    <_>
      <rect>
        2 17 5 5</rect></_>
    <_>
      <rect>
        2 19 10 4</rect></_>
    <_>
      <rect>
        2 22 9 3</rect></_>
    <_>
      <rect>
        3 3 6 2</rect></_>
    <_>
      <rect>
        3 7 3 8</rect></_>
    <_>
      <rect>
        3 13 7 5</rect></_>
    <_>
      <rect>
        4 0 1 2</rect></_>
    <_>
      <rect>
        4 9 7 4</rect></_>
    <_>
      <rect>
        4 19 2 2</rect></_>
    <_>
      <rect>
        4 19 9 1</rect></_>
    <_>
      <rect>
        4 23 8 1</rect></_>
    <_>
      <rect>
        5 15 3 2</rect></_>
    <_>
      <rect>
        7 0 8 4</rect></_>
    <_>
      <rect>
        7 3 5 4</rect></_>
    <_>
      <rect>
        7 14 5 3</rect></_>
    <_>
      <rect>
        7 14 6 1</rect></_>
    <_>
      <rect>
        8 7 6 6</rect></_>
    <_>
      <rect>
        8 8 1 1</rect></_>
    <_>
      <rect>
        8 8 5 5</rect></_>
    <_>
      <rect>
        8 13 8 3</rect></_>
    <_>
      <rect>
        8 26 8 2</rect></_>
    <_>
      <rect>
        9 17 7 5</rect></_>
    <_>
      <rect>
        10 1 7 4</rect></_>
    <_>
      <rect>
        11 7 1 3</rect></_>
    <_>
      <rect>
        11 25 6 2</rect></_>
    <_>
      <rect>
        12 10 6 4</rect></_>
    <_>
      <rect>
        13 6 6 3</rect></_>
    <_>
      <rect>
        13 22 2 1</rect></_>
    <_>
      <rect>
        13 24 3 1</rect></_>
    <_>
      <rect>
        14 5 6 9</rect></_>
    <_>
      <rect>
        14 14 6 6</rect></_>
    <_>
      <rect>
        14 22 2 1</rect></_>
    <_>
      <rect>
        15 2 5 3</rect></_>
    <_>
      <rect>
        15 19 3 2</rect></_>
    <_>
      <rect>
        15 21 3 1</rect></_>
    <_>
      <rect>
        17 3 5 4</rect></_>
    <_>
      <rect>
        17 4 5 2</rect></_>
    <_>
      <rect>
        17 17 5 3</rect></_>
    <_>
      <rect>
        19 0 4 5</rect></_>
    <_>
      <rect>
        19 13 3 4</rect></_>
    <_>
      <rect>
        19 14 4 4</rect></_>
    <_>
      <rect>
        19 25 3 2</rect></_>
    <_>
      <rect>
        21 27 2 1</rect></_>
    <_>
      <rect>
        22 0 2 4</rect></_>
    <_>
      <rect>
        23 2 3 1</rect></_>
    <_>
      <rect>
        23 8 2 1</rect></_></features></cascade>
</opencv_storage>
